{
  "levels": [
    {
      "inputs": [
        0.5335793690185269,
        0.052530636294122024,
        0,
        0,
        0
      ],
      "outputs": [
        1,
        0,
        1,
        1,
        1,
        0
      ],
      "biases": [
        -0.03731353663487394,
        0.05539050599968663,
        -0.05347423807155232,
        -0.2064344345933744,
        -0.1752109468199748,
        0.3230474221465194
      ],
      "weights": [
        [
          -0.002782422700616391,
          -0.08993999331489258,
          0.1375173018399675,
          0.18788268400055652,
          -0.2550856047502559,
          0.02016376944388587
        ],
        [
          -0.1876222573604915,
          -0.04260261931189902,
          -0.022059484288606594,
          0.023482158949981485,
          0.0506004168610762,
          -0.07414704544633849
        ],
        [
          -0.06919156425606064,
          0.007402571608359193,
          -0.12514692315335949,
          -0.08784286676772458,
          0.03552255106969617,
          0.0005536552422093985
        ],
        [
          -0.03593326084878487,
          -0.06679077087305613,
          -0.22132457089854463,
          0.07124537309866061,
          0.18449634928966308,
          -0.06581826008653682
        ],
        [
          0.05963080161930434,
          -0.10822738828281434,
          -0.003517772810174402,
          -0.009148065379614535,
          0.19244097445637762,
          -0.05409429189727889
        ]
      ]
    },
    {
      "inputs": [
        1,
        0,
        1,
        1,
        1,
        0
      ],
      "outputs": [
        1,
        0,
        0,
        0
      ],
      "biases": [
        -0.06724905363588181,
        -0.05425645257770083,
        0.03460835022745154,
        -0.014922958447899336
      ],
      "weights": [
        [
          -0.04348625394878079,
          0.03258042941308511,
          -0.41030341881915977,
          -0.09397583833203259
        ],
        [
          0.007862582700416704,
          -0.2244260701695711,
          0.04838667879069072,
          -0.011347388424625501
        ],
        [
          0.10121986010846185,
          -0.22329637126312885,
          0.0031946577965750005,
          0.009271408450407977
        ],
        [
          0.25377742762022704,
          -0.14595520300860204,
          0.11342724626968845,
          -0.02305647724023191
        ],
        [
          0.05109881326190699,
          0.15407613694029193,
          0.08375852826674592,
          -0.13187283765806457
        ],
        [
          0.029692649866902978,
          -0.04335823422781129,
          0.11131896146604595,
          0.21397545064309373
        ]
      ]
    }
  ]
}
